Language model created by QuickLM on Tue Apr  8 15:13:34 EDT 2014
Copyright (c) 1996-2010 Carnegie Mellon University and Alexander I. Rudnicky

The model is in standard ARPA format, designed by Doug Paul while he was at MITRE.

The code that was used to produce this language model is available in Open Source.
Please visit http://www.speech.cs.cmu.edu/tools/ for more information

The (fixed) discount mass is 0.5. The backoffs are computed using the ratio method.
This model based on a corpus of 31 sentences and 38 words

\data\
ngram 1=38
ngram 2=66
ngram 3=48

\1-grams:
-0.8779 </s> -0.3010
-0.8779 <s> -0.2350
-2.0682 ACT -0.2973
-2.3692 BACKGROUND -0.2393
-2.3692 BASSDRIVE -0.2393
-2.3692 BLUE -0.2393
-2.0682 DMX -0.2372
-2.3692 EDI -0.2393
-2.0682 ETA -0.2393
-2.3692 FORTUNE -0.2393
-2.3692 FOUR -0.2393
-2.3692 GREEN -0.2393
-1.6702 INIT -0.2916
-2.3692 LIST -0.2393
-2.3692 LOGIN -0.2393
-2.3692 LOGOUT -0.2393
-1.5911 MPD -0.2897
-2.0682 MUSIC -0.2973
-2.0682 NEXT -0.2393
-2.3692 ONE -0.2393
-2.3692 ORANGE -0.2393
-2.3692 PAUSE -0.2393
-2.3692 PLAY -0.2393
-2.3692 PREVIOUS -0.2393
-2.3692 RANDOM -0.2393
-2.0682 RED -0.2393
-2.3692 RUNLEVEL -0.2393
-2.3692 SOFA -0.2973
-2.3692 STOP -0.2393
-1.6702 TELL -0.2916
-2.3692 THREE -0.2393
-2.3692 TIME -0.2393
-2.3692 TWO -0.2393
-2.3692 UN -0.2973
-2.3692 USER -0.2992
-2.3692 WEATHER -0.2393
-2.3692 WHITE -0.2393
-2.3692 ZERO -0.2393

\2-grams:
-1.4914 <s> ACT 0.0000
-1.7924 <s> BACKGROUND 0.0000
-1.7924 <s> BLUE 0.0000
-1.7924 <s> EDI 0.0000
-1.7924 <s> ETA 0.0000
-1.7924 <s> FORTUNE 0.0000
-1.7924 <s> GREEN 0.0000
-1.7924 <s> LOGIN 0.0000
-1.7924 <s> LOGOUT 0.0000
-1.0142 <s> MPD 0.0000
-1.4914 <s> MUSIC 0.0000
-1.7924 <s> ORANGE 0.0000
-1.7924 <s> RED 0.0000
-1.7924 <s> RUNLEVEL 0.0000
-1.0934 <s> TELL 0.0000
-1.7924 <s> TIME 0.0000
-1.7924 <s> UN 0.0000
-1.7924 <s> USER 0.0000
-1.7924 <s> WEATHER 0.0000
-1.7924 <s> WHITE 0.0000
-0.3010 ACT DMX 0.0000
-0.3010 BACKGROUND </s> -0.3010
-0.3010 BASSDRIVE </s> -0.3010
-0.3010 BLUE </s> -0.3010
-0.6021 DMX </s> -0.3010
-0.6021 DMX SOFA 0.0000
-0.3010 EDI </s> -0.3010
-0.3010 ETA </s> -0.3010
-0.3010 FORTUNE </s> -0.3010
-0.3010 FOUR </s> -0.3010
-0.3010 GREEN </s> -0.3010
-1.0000 INIT FOUR 0.0000
-1.0000 INIT ONE 0.0000
-1.0000 INIT THREE 0.0000
-1.0000 INIT TWO 0.0000
-1.0000 INIT ZERO 0.0000
-0.3010 LIST </s> -0.3010
-0.3010 LOGIN </s> -0.3010
-0.3010 LOGOUT </s> -0.3010
-0.7782 MPD NEXT 0.0000
-1.0792 MPD PAUSE 0.0000
-1.0792 MPD PLAY 0.0000
-1.0792 MPD PREVIOUS 0.0000
-1.0792 MPD STOP 0.0000
-0.6021 MUSIC BASSDRIVE 0.0000
-0.6021 MUSIC RANDOM 0.0000
-0.3010 NEXT </s> -0.3010
-0.3010 ONE </s> -0.3010
-0.3010 ORANGE </s> -0.3010
-0.3010 PAUSE </s> -0.3010
-0.3010 PLAY </s> -0.3010
-0.3010 PREVIOUS </s> -0.3010
-0.3010 RANDOM </s> -0.3010
-0.3010 RED </s> -0.3010
-0.3010 RUNLEVEL </s> -0.3010
-0.3010 SOFA RED 0.0000
-0.3010 STOP </s> -0.3010
-0.3010 TELL INIT 0.0000
-0.3010 THREE </s> -0.3010
-0.3010 TIME </s> -0.3010
-0.3010 TWO </s> -0.3010
-0.3010 UN ETA 0.0000
-0.3010 USER LIST 0.0000
-0.3010 WEATHER </s> -0.3010
-0.3010 WHITE </s> -0.3010
-0.3010 ZERO </s> -0.3010

\3-grams:
-0.3010 <s> ACT DMX
-0.3010 <s> BACKGROUND </s>
-0.3010 <s> BLUE </s>
-0.3010 <s> EDI </s>
-0.3010 <s> ETA </s>
-0.3010 <s> FORTUNE </s>
-0.3010 <s> GREEN </s>
-0.3010 <s> LOGIN </s>
-0.3010 <s> LOGOUT </s>
-0.7782 <s> MPD NEXT
-1.0792 <s> MPD PAUSE
-1.0792 <s> MPD PLAY
-1.0792 <s> MPD PREVIOUS
-1.0792 <s> MPD STOP
-0.6021 <s> MUSIC BASSDRIVE
-0.6021 <s> MUSIC RANDOM
-0.3010 <s> ORANGE </s>
-0.3010 <s> RED </s>
-0.3010 <s> RUNLEVEL </s>
-0.3010 <s> TELL INIT
-0.3010 <s> TIME </s>
-0.3010 <s> UN ETA
-0.3010 <s> USER LIST
-0.3010 <s> WEATHER </s>
-0.3010 <s> WHITE </s>
-0.6021 ACT DMX </s>
-0.6021 ACT DMX SOFA
-0.3010 DMX SOFA RED
-0.3010 INIT FOUR </s>
-0.3010 INIT ONE </s>
-0.3010 INIT THREE </s>
-0.3010 INIT TWO </s>
-0.3010 INIT ZERO </s>
-0.3010 MPD NEXT </s>
-0.3010 MPD PAUSE </s>
-0.3010 MPD PLAY </s>
-0.3010 MPD PREVIOUS </s>
-0.3010 MPD STOP </s>
-0.3010 MUSIC BASSDRIVE </s>
-0.3010 MUSIC RANDOM </s>
-0.3010 SOFA RED </s>
-1.0000 TELL INIT FOUR
-1.0000 TELL INIT ONE
-1.0000 TELL INIT THREE
-1.0000 TELL INIT TWO
-1.0000 TELL INIT ZERO
-0.3010 UN ETA </s>
-0.3010 USER LIST </s>

\end\
